digraph Tree {
0 [label="X[0] <= 0.3905\ngini = 0.5\nsamples = 200", shape="box"] ;
1 [label="X[1] <= 1.2544\ngini = 0.107179752066\nsamples = 88", shape="box"] ;
0 -> 1 ;
2 [label="gini = 0.0000\nsamples = 4\nvalue = [ 4.  0.]", shape="box"] ;
1 -> 2 ;
3 [label="X[0] <= 0.2736\ngini = 0.0235260770975\nsamples = 84", shape="box"] ;
1 -> 3 ;
4 [label="gini = 0.0000\nsamples = 80\nvalue = [  0.  80.]", shape="box"] ;
3 -> 4 ;
5 [label="X[0] <= 0.2865\ngini = 0.375\nsamples = 4", shape="box"] ;
3 -> 5 ;
6 [label="gini = 0.0000\nsamples = 1\nvalue = [ 1.  0.]", shape="box"] ;
5 -> 6 ;
7 [label="gini = 0.0000\nsamples = 3\nvalue = [ 0.  3.]", shape="box"] ;
5 -> 7 ;
8 [label="X[1] <= 2.2327\ngini = 0.257493622449\nsamples = 112", shape="box"] ;
0 -> 8 ;
9 [label="gini = 0.0000\nsamples = 54\nvalue = [ 54.   0.]", shape="box"] ;
8 -> 9 ;
10 [label="X[0] <= 1.8084\ngini = 0.414387633769\nsamples = 58", shape="box"] ;
8 -> 10 ;
11 [label="X[0] <= 1.0091\ngini = 0.355029585799\nsamples = 52", shape="box"] ;
10 -> 11 ;
12 [label="X[1] <= 4.1920\ngini = 0.464444444444\nsamples = 30", shape="box"] ;
11 -> 12 ;
13 [label="X[1] <= 2.2947\ngini = 0.499054820416\nsamples = 23", shape="box"] ;
12 -> 13 ;
14 [label="gini = 0.0000\nsamples = 2\nvalue = [ 0.  2.]", shape="box"] ;
13 -> 14 ;
15 [label="X[1] <= 2.6316\ngini = 0.489795918367\nsamples = 21", shape="box"] ;
13 -> 15 ;
16 [label="gini = 0.0000\nsamples = 4\nvalue = [ 4.  0.]", shape="box"] ;
15 -> 16 ;
17 [label="X[1] <= 3.9292\ngini = 0.498269896194\nsamples = 17", shape="box"] ;
15 -> 17 ;
18 [label="X[1] <= 3.5748\ngini = 0.497777777778\nsamples = 15", shape="box"] ;
17 -> 18 ;
19 [label="X[0] <= 0.4648\ngini = 0.497041420118\nsamples = 13", shape="box"] ;
18 -> 19 ;
20 [label="gini = 0.0000\nsamples = 1\nvalue = [ 1.  0.]", shape="box"] ;
19 -> 20 ;
21 [label="X[1] <= 3.2374\ngini = 0.486111111111\nsamples = 12", shape="box"] ;
19 -> 21 ;
22 [label="X[1] <= 2.9188\ngini = 0.493827160494\nsamples = 9", shape="box"] ;
21 -> 22 ;
23 [label="X[0] <= 0.7472\ngini = 0.375\nsamples = 4", shape="box"] ;
22 -> 23 ;
24 [label="gini = 0.0000\nsamples = 2\nvalue = [ 0.  2.]", shape="box"] ;
23 -> 24 ;
25 [label="X[1] <= 2.7573\ngini = 0.5\nsamples = 2", shape="box"] ;
23 -> 25 ;
26 [label="gini = 0.0000\nsamples = 1\nvalue = [ 1.  0.]", shape="box"] ;
25 -> 26 ;
27 [label="gini = 0.0000\nsamples = 1\nvalue = [ 0.  1.]", shape="box"] ;
25 -> 27 ;
28 [label="X[0] <= 0.8024\ngini = 0.32\nsamples = 5", shape="box"] ;
22 -> 28 ;
29 [label="gini = 0.0000\nsamples = 3\nvalue = [ 3.  0.]", shape="box"] ;
28 -> 29 ;
30 [label="X[0] <= 0.9122\ngini = 0.5\nsamples = 2", shape="box"] ;
28 -> 30 ;
31 [label="gini = 0.0000\nsamples = 1\nvalue = [ 0.  1.]", shape="box"] ;
30 -> 31 ;
32 [label="gini = 0.0000\nsamples = 1\nvalue = [ 1.  0.]", shape="box"] ;
30 -> 32 ;
33 [label="gini = 0.0000\nsamples = 3\nvalue = [ 0.  3.]", shape="box"] ;
21 -> 33 ;
34 [label="gini = 0.0000\nsamples = 2\nvalue = [ 2.  0.]", shape="box"] ;
18 -> 34 ;
35 [label="gini = 0.0000\nsamples = 2\nvalue = [ 0.  2.]", shape="box"] ;
17 -> 35 ;
36 [label="gini = 0.0000\nsamples = 7\nvalue = [ 7.  0.]", shape="box"] ;
12 -> 36 ;
37 [label="X[0] <= 1.4398\ngini = 0.0867768595041\nsamples = 22", shape="box"] ;
11 -> 37 ;
38 [label="gini = 0.0000\nsamples = 16\nvalue = [ 16.   0.]", shape="box"] ;
37 -> 38 ;
39 [label="X[0] <= 1.4461\ngini = 0.277777777778\nsamples = 6", shape="box"] ;
37 -> 39 ;
40 [label="gini = 0.0000\nsamples = 1\nvalue = [ 0.  1.]", shape="box"] ;
39 -> 40 ;
41 [label="gini = 0.0000\nsamples = 5\nvalue = [ 5.  0.]", shape="box"] ;
39 -> 41 ;
42 [label="X[1] <= 2.5009\ngini = 0.277777777778\nsamples = 6", shape="box"] ;
10 -> 42 ;
43 [label="gini = 0.0000\nsamples = 1\nvalue = [ 1.  0.]", shape="box"] ;
42 -> 43 ;
44 [label="gini = 0.0000\nsamples = 5\nvalue = [ 0.  5.]", shape="box"] ;
42 -> 44 ;
}